{
  "layer_0": {
    "weights": [
      -0.0728682474694535,
      -0.044027143837642474,
      -0.01175953863257317,
      0.0543537745635581,
      -0.16716316022456115,
      -0.07277457963896565,
      -0.08087213485215601,
      -0.07798172666750366,
      0.012899395299406164,
      0.0018808793559113805,
      0.04030764197092566,
      -0.03873115826849175,
      0.10330976997140096,
      0.03673132896438953,
      0.0520736206527734,
      0.027519445542687704,
      -0.06423873395395432,
      0.0004338747698577301,
      -0.007690682144187541,
      -0.04986354121702177,
      -0.04686379686583032,
      -0.09816660729576712,
      0.06278049074448501,
      -0.05356613894787285,
      0.13325237166448217,
      -0.03404804995024248,
      -0.04040643358920099,
      0.10549635479826229,
      -0.040177270971368896,
      -0.052989436798948124,
      0.003681783183750935,
      -0.06250194148965442,
      0.03535859775058977,
      -0.06825283557064571,
      -0.032215005026717855,
      -0.017312293732146735,
      -0.08817070652141551,
      -0.035050011500330394,
      -0.056590236534387356,
      -0.09058277939597889,
      0.12630331795442404,
      -0.028101619431687177,
      0.07850081450418078,
      -0.0683095218167166,
      -0.07871131893397643,
      -0.011682459184305122,
      0.08731715268616436,
      0.051530424784006885,
      0.06446651582568716,
      -0.0754186719937184,
      0.04921169559087766,
      -0.0081890938353633,
      -0.09379990288752277,
      0.04456849319232286,
      0.014076223175558561,
      -0.006455812690803727,
      -0.11323892480336605,
      0.1526353514383452,
      0.08312370246189973,
      -0.0158156658956019,
      0.0055381913025040665,
      -0.06842855837338731,
      -0.05415863719364076,
      0.0774622420660472,
      0.018374011691524368,
      -0.06687482218826382,
      0.012745025924374724,
      -0.0078938109054806,
      0.06745262641450674,
      0.02254873306759304,
      -0.060628503195888674,
      -0.030025256211533576,
      -0.08811362280070746,
      0.12387169307429581,
      -0.017492529071036936,
      -0.0681807527189958,
      -0.09832239174633656,
      0.0017873889056243875,
      0.018293309902400207,
      -0.01743103508580776,
      0.05601841795951927,
      -0.023674266439794922,
      -0.022196052280816395,
      -0.080427852765427,
      -0.11054139175743116,
      0.019811208393902692,
      -0.037439424652148626,
      -0.020712335878992474,
      -0.029675231517176263,
      -0.05739666862344304,
      -0.006805386026748914,
      -0.1623032100781579,
      -0.04771181424082553,
      0.0571182936749059,
      -0.14583661756297642,
      -0.06499658434061775,
      0.14349771881540277,
      0.0655158849408886,
      0.019440786397357752,
      -0.12216518543971207,
      0.0789786493586234,
      -0.03753839731584424,
      0.052110592221371266,
      0.019492356713388836,
      -0.06311603564845801,
      -0.06770567369146008,
      -0.03821102898367074,
      0.023456015554874695,
      0.10593255258150562,
      -0.005655404607309861,
      0.0202534757705551,
      0.07910392242406059,
      -0.1226823325875195,
      6.68853831037225e-05,
      -0.09496140582382136,
      0.022025175604740235,
      -0.14640306809606418,
      -0.010026655954415004,
      -0.027243524283291017,
      0.04437360567871938,
      -0.04187398262647972,
      0.05876539149485677,
      -0.08501494118104559,
      -0.0750323788316744,
      0.01399771742693694,
      0.05667241690885186,
      -0.048761323135893896,
      -0.08468744233225053,
      -0.021747802151042762,
      -0.11384762004444203,
      0.02728035833722502,
      0.0659444858195827,
      0.020752217968113194,
      0.022351429188649217,
      0.0330770367202132,
      0.09031608173456082,
      -0.0015507434502901683,
      -0.02992278660952847,
      0.09801918256961858,
      0.07482284234328887,
      -0.13637138996059067,
      -0.08808513888679222,
      -0.017787228708283503,
      -0.036848206028483085,
      0.05061258841043608,
      0.16122969468388743,
      0.07097689854684744,
      -0.05071146256826705,
      -0.12791575958716989,
      0.003701455341320956,
      0.044619954246211034,
      0.05777252189344182,
      0.005992856906526758,
      0.00395207833240207,
      -0.014346297192189036,
      -0.08411097915622125,
      0.01627955527020867,
      0.07252138226723555,
      -0.03962120579460707,
      -0.01859924406761741,
      -0.04030179413799602,
      0.0033051834169565615,
      -0.009235263541758925,
      -0.0008280683116099553,
      -0.08180837238252804,
      0.10904762178849006,
      -0.09699508599454393,
      0.025969282799699768,
      0.06971526862215174,
      -0.06857519106988806,
      0.016426555123689183,
      0.009069144674200676,
      0.07939051830816034,
      -0.0012635092871174736,
      0.08385819228365649,
      -0.011563868482967471,
      -0.013024742513014251,
      0.06979663321053954,
      0.014320213708041055,
      -0.025599272043492164,
      -0.023653613147442066,
      0.007768052926712346,
      0.07380535111579303,
      -0.08206697100872547,
      0.009904813410705277,
      0.01802521630448508,
      0.02030762304445476,
      0.055191713975817944,
      0.014495287440735204,
      -0.027328009397507333,
      -0.1886322195008753,
      0.031978497337782415,
      0.05581164972761006,
      0.04158833995822491,
      -0.18323766246048595,
      0.04336676626120605,
      0.0676196590090138,
      0.023659477541722387,
      0.00617098522880847,
      -0.04125957087134313,
      0.1518394205870654,
      0.02923786168026213,
      0.06423761107903117,
      -0.051346384568047326,
      0.021492330982169468,
      -0.00042643742452190114,
      0.05054130881586004,
      -0.11644418011902812,
      -0.033390510273116215,
      0.08673298144816553,
      -0.09704998959961918,
      0.11964923952064686,
      0.017830608518527778,
      -0.07628623013800744,
      -0.05696885854675471,
      0.07700112595132338,
      -0.05346450949525732,
      0.003757636570559348,
      0.014338590188383349,
      0.01034255665607761,
      0.07583198455204548,
      -0.021665123097047503,
      0.0028503473549065586,
      0.008724766520555417,
      0.0967578997880016,
      0.014399061879556892,
      -0.08477180524988474,
      0.058066238053021434,
      -0.021231661542741868,
      -0.03947090105452036,
      -0.015270443450358172,
      -0.1272078034099889,
      0.12343509262999781,
      0.04877320632466341,
      -0.010793255082469002,
      0.1348600415421606,
      -0.012693440619957157,
      -0.04307108967886919,
      -0.0011769524268588315,
      0.11528311057001182,
      0.005286913499144393,
      -0.053379499221605474,
      -0.025938919489622448,
      0.15539998566872265,
      -0.049217744586946485,
      -0.019843024593413378,
      -0.007461417808514409,
      -0.017844356750635403,
      -0.046323652428041165,
      -0.0859910054248178,
      0.02403851015351194,
      0.1288627964034606,
      -0.013005660177821501,
      -0.035077654193736235,
      -0.041328248215558104,
      0.02191031185774168,
      0.027000799427566648,
      0.022735990215516175,
      0.047734659485491694,
      -0.010235299604077642,
      -0.04128921492769625,
      0.06510551228809146,
      -0.11452931714977044,
      -0.10210737914137129,
      -0.07978824445402244,
      -0.08639651044178295,
      0.05831216099786986,
      0.04476908350894985,
      0.07157184335125526,
      -0.12498781353415976,
      -0.03884556029927677,
      -0.026131376645900234,
      -0.12090798132326894,
      0.037799566682145944,
      -0.008884803046549927,
      0.020266390037128865,
      0.09420105050228729,
      -0.10268671326353405,
      0.05032502117525047,
      0.10185477269599268,
      0.019291834002207027,
      -0.09855510948392121,
      0.03806691775656665,
      0.17733648440808228,
      0.056592321661613876,
      0.018452027144900723,
      0.028735633333723868,
      0.0942117599091016,
      -0.004114059648487944,
      0.09359001870934586,
      -0.061015287631655764,
      -0.09818060470251042,
      0.1146723563601909,
      0.10859348598084552,
      0.005299669820816922,
      0.02692418011796028,
      -0.08994580100926285,
      0.09125706173926343,
      0.03338277271984482,
      0.05148906287019236,
      0.025745038871299527,
      0.07781052195336924,
      -0.01403793978247578,
      -0.08561288201989092,
      -0.05447085842591857,
      -0.04119562145539885,
      -0.01834729549438611,
      0.0118521388251982,
      -0.031814499191808836,
      -0.03589116281323595,
      0.028827419077928008,
      0.014620477865503741,
      -0.04227712205909005,
      -0.004761968918679167,
      0.06742972709555169,
      0.09595109959586605,
      0.16870894269899223,
      0.04722743602016364,
      0.03618990633652314,
      -0.023909294322739097,
      0.022441313747074546,
      -0.05472128427793306,
      -0.0548576952377422,
      0.06406183998219026,
      0.09109711697116252,
      0.01730811923377237,
      -0.05209724939511994,
      0.12171876269519107,
      -0.07148507503347785,
      -0.09989519757455669,
      0.04197301616110249,
      -0.004855670509975127,
      -0.020566200652264655,
      0.03352917897442777,
      0.00042988299765161066,
      -0.13815229058194656,
      -0.10857131529583296,
      -0.026046330682852427,
      -0.03440880941469793,
      0.004053898525699509,
      0.015658913271413135,
      -0.11666362347827977,
      0.007734299180288265,
      0.017926719591645907,
      -0.018610413137294654,
      0.03375853668419669,
      0.0381758220692775,
      0.04002909233870588,
      0.017883753128841103,
      0.04213610236837932,
      0.06290220377126947,
      -0.03673180015450796,
      0.04802971924580372,
      -0.009444411860645405,
      -0.024751629628522388,
      -0.045395479980433494,
      -0.029261581750457094,
      -0.027327521854941684,
      -0.09705020549181263,
      -0.002711091000231607,
      0.07259189252687483,
      -0.024301537346214326,
      0.1544909814884735,
      -0.11144747007183753,
      0.048403149293371014,
      -0.004650290270953312,
      -0.06672170375665916,
      -0.04754252820804567,
      0.024352709887659,
      -0.0688889120197195,
      0.027981702846653935,
      -0.10398764863148176,
      0.04869162479220417,
      -0.19461099767594262,
      0.027203701626329832,
      -0.008894719453823832,
      -0.043523773667463135,
      0.05998980230470264,
      0.03342524566551395,
      0.07043615650384324,
      0.025306996706898285,
      0.0962982325508475,
      0.055472616907830764,
      0.1932200977175312,
      0.00903101658085297,
      -0.032941431428872875,
      0.045318393053233076,
      -0.04660649548278743,
      -0.027928673141987197,
      0.0331972416867316,
      0.08279157946666069,
      -0.02808993530639043,
      -0.06089946407473798,
      -0.07909683052857125,
      -0.023454977786152242,
      0.039259748897083044,
      -0.03033719659655854,
      0.03364030834370248,
      0.0007827570407390142,
      0.0479955015346944,
      0.0804478913134722,
      -0.05632210232297338,
      0.03300772182722224,
      0.07097519021646347,
      0.009022986702846996,
      -0.0666066178877387,
      0.09668726829077862,
      -0.13655745803793387,
      -0.01912049296565141,
      -0.020122249313941645,
      0.02633728196068125,
      3.824658916267001e-05,
      -0.08430702182652,
      -0.0034044823597196576,
      0.023239416496709332,
      -0.058318685519091876,
      -0.008363872525275573,
      0.0340483687706001,
      -0.07446899000081125,
      0.14136376723063948,
      0.009919141560411418,
      -0.11034113604397797,
      -0.04166175398845455,
      -0.07767106639696382,
      0.03050463721265489,
      -0.038498662688445866,
      0.0350168203284778,
      0.08060289002945728,
      0.11092998347513683,
      0.02189112963947771,
      0.03556470244004874,
      -0.1018599534856595,
      0.013475828226936677,
      -0.02923104509021998,
      -0.07744385394097915,
      -0.04613752117465373,
      -0.06194592530560417,
      -0.0017770205377327735,
      -0.07512790636251752,
      -0.02071926351005536,
      -0.08106665350649975,
      0.03973727767389152,
      -0.05751030753283467,
      -0.07189838469428608,
      -0.06771186573772982,
      0.008143261564942673,
      -0.03266851521547072,
      -0.030082312160032168,
      0.12822155506770924,
      0.010174847123713334,
      -0.03911156519054596,
      0.01824159798783934,
      0.06486467969305393,
      -0.009561220607054612,
      -0.12929349083184516,
      0.06120065040987846,
      0.019500129467245986,
      -0.06904914821811102,
      -0.04899354210405019,
      -0.08144013060041563,
      -0.10168626426697183,
      0.08227385701736449,
      -0.07264666750295794,
      0.07751174672096933,
      -0.05797996188191132,
      -0.12614540022779805,
      -0.02919062932922039,
      0.03517478865971735,
      0.047121639876053875,
      0.10200010239424859,
      0.07153558104721014,
      -0.05302902780138689,
      0.03538595564798519,
      0.10770644133259036,
      -0.002729059326566581,
      -0.07807519148953854,
      -0.05165834582254067,
      -0.15671222718152997,
      -0.027466532866985784,
      -0.055822716138683046,
      -0.033178240399302505,
      0.04830374557042421,
      -0.041298600457830036,
      0.05602580870962391,
      0.00756272643963822,
      -0.04458628623933039,
      -0.0640305501036505,
      -0.16555394686087793,
      -0.014753678064329383,
      0.06064583024081842,
      -0.05866875652448139,
      0.06417255681653057,
      0.09027596340930813,
      -0.04267336260200515,
      0.05642763999168226,
      0.0498115010092757,
      -0.003457509498746079,
      -0.07540459439476788,
      -0.005465911968255402,
      -0.0074247880229595,
      0.02664545875030235,
      0.09376738710515445,
      -0.09822501764200128,
      0.05813732866700172,
      0.013720701884779744,
      -0.11508457512999755,
      -0.05626596423796077,
      -0.07051719349085736,
      -0.11559116687146817,
      -0.05234773604247588,
      0.14522073586513898,
      -0.012777506357292691,
      -0.001771320600741378,
      0.0834649631575063,
      -0.04568265734779676,
      -0.13056785317427252,
      -0.00021692057667807162,
      -0.01210213703298782,
      0.1304146958393224,
      0.05742069653543571,
      -0.04202210668955594,
      -0.07579093615205422,
      0.011634600444554288,
      -0.012086031077165703,
      0.07870093913138898,
      -0.03249733629278103,
      0.03170585107106669,
      0.01733945686424801,
      -0.06044849703909507,
      -0.03290119231921015,
      0.10526168366234596,
      -0.0747900833883496,
      0.06574585534343336,
      0.012977164876572784,
      0.06479995916219601,
      -0.004123313378088284,
      -0.09671576011021506,
      -0.06667600217726505,
      -0.061356236924841205,
      0.058466680635713406,
      0.0465000886633144,
      0.08212474440717846,
      -0.0049103999544830735,
      -0.01976611623795326,
      0.04694012069505819,
      0.004764063550955999,
      0.0331580726752238,
      -0.06192595249237463,
      -0.028213612234814084,
      -0.036397915037371414,
      0.007998707927625463,
      0.007987404626850443,
      -0.01651726389377561,
      0.11655205391311195,
      -0.08498568861834443,
      -0.05479667900994122,
      -0.11569986116691582,
      0.029023086114677476,
      0.08232626772815858,
      0.021220952379206015,
      0.15952912723865478,
      -0.08600977159716738,
      0.08662634076169716,
      -0.12253924587268217,
      0.06130733499935607,
      -0.07489618760851094,
      0.08372274214312944,
      -0.03856951488210614,
      0.03547003584094719,
      0.0889185697681277,
      -0.09348042861199965,
      0.006880754700965661,
      -0.04265810457690253,
      0.025092970527345666,
      -0.013343320824014819,
      0.14123208916855456,
      0.03202439852082938,
      0.04996418195416068,
      0.02094693704933023,
      0.008304528275470307,
      0.05526133438412215,
      -0.02600852708089501,
      -0.03880822673366401,
      -0.024966642496544664,
      -0.11894353970514497,
      -0.07463595360467458,
      -0.02852331181201879,
      -0.03934946217837716,
      -0.07857266981229985,
      -0.07143072742327124,
      0.05895881846627693,
      0.07000719428305809,
      -0.08973604510829636,
      -0.03132405441223711,
      0.00592905222019492,
      0.005832217258963976,
      -0.01027188213825561,
      -0.021395182339677462,
      -0.05490707743748489,
      -0.1192780972918085,
      -0.016677816927026315,
      0.01780581184899552,
      0.006092908538066053,
      -0.11033306701983195,
      0.08981636883191728,
      0.03641053857820481,
      -0.10724435450309824,
      -0.08695980616790178,
      0.031618286870758024,
      -0.07751088994853936,
      -0.024820208911123298,
      0.032390899126924055,
      -0.11333097695390015,
      -0.08524172163969526,
      -0.07504341934904672,
      -0.1121995935480374,
      -0.01827603709784602,
      0.062872260439822,
      -0.11044418657802746,
      -0.021420320214749555,
      0.07878346094349822,
      -0.059869176195127105,
      0.058847178867184574,
      -0.061388240485148106,
      0.02407066807413251,
      -0.04312669847769453,
      0.04401886871453677,
      0.06280699205373823,
      -0.03071812208041107,
      0.018425349573486755,
      0.09426727761350268,
      -0.02936690212331352,
      0.08940330652810412,
      0.10612668590603387,
      0.011132331505762318,
      0.08487751019779066,
      0.12575093520985137,
      -0.019786781533733262,
      -0.05483050945928722,
      0.003810521164230377,
      -0.18371384605503518,
      0.06039023784258609,
      -0.04338835863493048,
      -0.005387196521575481,
      -0.08200242140096077,
      0.043343507002729965,
      0.014883697162086134,
      -0.05358380006165451,
      0.05736738371436384,
      0.05551649213903342,
      0.0947900991541362,
      0.004932127783536276,
      0.17606202948654615,
      0.013270077020966534,
      -0.14473575139557385,
      0.05260904212745676,
      -0.1315622393031511,
      0.020087231611867633,
      0.026980804874909045,
      0.011746048940657016,
      -0.08898860037747967,
      -0.03831303737430473,
      0.1327839770628662,
      -0.07846893598601093,
      -0.09477172220466806,
      0.09942463766440826,
      -0.03558576484854464,
      -0.09991982030813466,
      0.0399066444459223,
      0.006945401734240043,
      0.015040022979812738,
      -0.08436318868942251,
      0.13047757086728443,
      0.0165204894868863,
      0.14052818986983567,
      -0.04531616340186601,
      0.05506701882139976,
      -0.10567104211546191,
      0.021875786673597228,
      -0.04993358442593975,
      -0.05151842637140374,
      0.11265133264657956,
      -0.12222243426545565,
      -0.029263715735355016,
      0.06795156697500616,
      -0.06867361147174104,
      0.04470111663908459,
      0.09015108251460259,
      0.020846055834779997,
      0.07086230665601463,
      0.01352460772083928,
      -0.0004127406415791558,
      -0.10292372779430671,
      0.08321413424055608,
      0.04379747637157221,
      0.05737047999325093,
      0.06281686448600098,
      -0.06049275418529591,
      0.03776217969681855,
      -0.05857316954949529,
      0.01976914112736814,
      0.03663064482664084,
      0.12033863691175808,
      -0.08536276537345658,
      -0.033199529118024464,
      -0.0537564677044103,
      0.0886889799638244,
      -0.06923602453227277,
      0.0698256365572888,
      -0.01000960169868306,
      0.03268991940432206,
      0.028997082362585098,
      -0.029509856678441377,
      -0.030911256330129956,
      0.03272775555713771,
      0.09092241615768479,
      0.01012998889099285,
      -0.1096419025571448,
      0.025092238380177358,
      0.05779474062926676,
      -0.013516898611594915,
      0.01539720311583808,
      -0.10001230218166894,
      0.0581119919984413,
      0.13674349570332517,
      -0.019080417107498276,
      -0.00405960565964442,
      0.04624023754894941,
      0.03169375817967558,
      0.05203715523141969,
      -0.15156415294757455,
      0.09182210072239581,
      -0.11015244837312578,
      -0.13429284384165238,
      -0.04139820268222152,
      0.056822737322540735,
      0.06034616343900228,
      -0.14755900435948863,
      -0.06186802722713115,
      -0.022075749029897375,
      0.05740942780626462,
      -0.08113773391183648,
      -0.050124063406738736,
      -0.11626793580947839,
      0.02114901950056837,
      -0.07808744837334973,
      -0.030103304072640415,
      -0.03138997896894448,
      0.007592771031739116,
      0.003937432936374853,
      0.031298885379547815,
      0.045341513006991914,
      -0.15847030116040783,
      -0.004230446076043051,
      -0.08017319088796325,
      0.018881844532117262,
      -0.15715546374058634,
      -0.10881566101472108,
      0.01080596125559199,
      0.01584492046278056,
      0.07102653723605099,
      0.06276490161873964,
      -0.04955798493413721,
      -0.11765006231060175,
      -0.03506148625683661,
      -0.004764149116146743,
      -0.04119526772308059,
      0.007767548604410033,
      -0.08961990313525352,
      -0.03900680325598468,
      -0.06425615619305032,
      0.012323453676849814,
      -0.0390337362541931,
      -0.11116192789832244,
      0.042419532545063546,
      -0.10749780973463838,
      -0.02138741177506319,
      -0.1310876020991635,
      0.10742239773456808,
      -0.007002494519181177,
      0.0742248784465975,
      0.05691464832987917,
      0.02706749932257346,
      -0.012881539785049462,
      -0.006402250426613701,
      -0.0541013822868573,
      0.02641599947923357,
      -0.005031584330603842,
      -0.04479764004283103,
      -0.01864962980239783,
      0.002926604252028914,
      -0.068957410812078,
      0.09896684508417045,
      0.07833711606296209,
      -0.12291003370064835,
      0.1339525469029551,
      0.039855849471969865,
      -0.0507584763373162,
      -0.018172856480004964,
      0.06677653527292861,
      -0.037103267064790904,
      -0.08770005446435485,
      0.032085782632226126,
      -0.00042691740899814494,
      0.04183073705296656,
      -0.07232561437658924,
      -0.09783139625835241,
      -0.022246643108194315,
      -0.07565499764456347,
      -0.04894489046465995,
      -0.04332863298888099,
      -0.05986201813879294,
      -0.027493055912662857,
      0.07390660797056525,
      0.00790324630549069,
      -0.042070561822379095,
      0.08897582644047808,
      -0.02078798754828637,
      0.0505432947152071,
      0.09550617244409675,
      -0.03283546138233305,
      -0.10064862160876523,
      -0.0060707716422776,
      -0.07213492185467497,
      0.05528054269520755,
      -0.00820790463435519,
      0.14518158721336502,
      0.04753067890269723,
      0.021103685666579563,
      0.09444912531439707,
      0.01072099207755641,
      0.07068568763584594,
      0.11932243932329753,
      -0.08767007924872083,
      -0.006118924221065514,
      0.07647725164008037,
      -0.01437288038747182,
      -0.05799773925792266,
      0.01928006775300247,
      -0.13088810325646563,
      0.057959541914145415,
      -0.015273315961979592,
      0.013284603923041578,
      -0.017142928191057845,
      0.09880135353924889,
      -0.06632466816186379,
      0.03587561977246832,
      0.09882872889484755,
      -0.16611160743347908,
      0.2323698333209181,
      0.026517731187816553,
      -0.06346369369796902,
      -0.11346635027337411,
      0.03462847314602283,
      0.09078233490224787,
      -0.10240614437350681,
      -0.1739527877415414,
      0.036635854198664476,
      -0.05524192618030428,
      0.004326987041720682,
      -0.02669255648421023,
      0.008026229528979228,
      0.004712043308652926,
      0.12838183910813872,
      -0.020658395770678913,
      0.022937476800690658,
      -0.020682005878772402,
      -0.010419325000571827,
      -0.04244692297073677,
      0.10296872812396493,
      -0.1108268793119767,
      -0.008821902618638926,
      -0.008683305062405442,
      -0.12023653975734032,
      -0.05064489717699188,
      -0.06814947247724189,
      -0.061483770543205626,
      -0.08008162955183193,
      0.06980213962823781,
      0.06665999746053292,
      -0.011306219611496186,
      -0.07005271659608416,
      -0.09009978993653799,
      -0.057079111626269385,
      0.009247887443945477,
      -0.0015518294990084067,
      -0.046516030033514476,
      -0.0048072116901723295,
      0.024073254347484106,
      0.03174197280021504,
      0.06439387548990208,
      0.029524801555648086,
      -0.1152233004521106,
      0.051138384139419665,
      -0.09719704311738422,
      0.11067794736140085,
      -0.04314836202531654,
      -0.03197937738441053,
      0.005782765024826942,
      0.04312921557291543,
      0.05444945743074363,
      0.011626704947886788,
      -0.010910640579557204,
      0.06115015779219695,
      -0.004521928478816086,
      0.03559589005943713,
      0.06047187596500825,
      -0.027437523180827116,
      -0.05504484300874826,
      -0.03900308854560599,
      -0.01253617612702027,
      -0.004469114264454399,
      0.015852278155364413,
      -0.1406289878657646,
      0.09790347747367793,
      0.006873691443021716,
      0.004101173321575534,
      0.04058936579146754,
      0.02581043056985619,
      0.09205532496809599,
      0.017268495435360638,
      0.051896736473076875,
      -0.07229514811135525,
      0.03537277093618747,
      -0.057783091942006516,
      0.020094363024451414,
      -0.017975481737829153,
      -0.002453830500981604,
      0.003202802205583913,
      0.04344055499914281,
      -0.030015815494309345,
      -0.055709449216838215,
      0.14277645272390366,
      -0.018047235929527693,
      -0.08474181654553349,
      -0.10022374562056736,
      -0.005448713504078118,
      -0.056144346050796046,
      -0.15953020465693923,
      -0.08370965430319502,
      0.021585530533995628,
      -0.16064116711014675,
      -0.03719745211505761,
      0.0667470731836751,
      0.03796859720944556,
      0.0260447876256956,
      -0.03273374942783301,
      0.15257733707236437,
      -0.05837518386201792,
      -0.09418177889929537,
      0.04159879568652264,
      0.01354569852790966,
      0.08724052398579472,
      -0.10387245006356771,
      0.03605285749525706,
      -0.08408818966843629,
      0.06101335877388759,
      0.004987630342078028,
      -0.07882241938691956,
      -0.08665594970427802,
      -0.013311377531717869,
      -0.12244049041870687,
      0.034575680693365377,
      0.00766261583493117,
      0.07362890982646837,
      -0.0283485936052602,
      -0.019153697577898022,
      -0.13112866975014884,
      0.08083565139426965,
      0.08173818367060663,
      0.11427211653656234,
      -0.1489265941755874,
      -0.09090744531465356,
      -0.0992586478450478,
      0.018711059591749592,
      0.06767599605904677,
      0.1406572995837966,
      -0.09730589416514605,
      0.03324609678881179,
      0.020903264227104094,
      -0.027883238393463888,
      0.04034733461749871,
      -0.09277223194249119,
      -0.036441697093750496,
      0.003058835733779252,
      -0.041733721805250694,
      -0.10333552242175473,
      0.07554764042183507,
      -0.029991839678563496,
      -0.01619573116999722,
      -0.04012297543058012,
      0.07201542147734381,
      0.01892279588034547,
      -0.0017191879837418708,
      0.054493045712853606,
      -0.024820369896876242,
      -0.0856932137255673,
      0.03804076102950343,
      0.02083086420676141,
      -0.11763979570173476,
      -0.1402998968665081,
      0.005356783455483304,
      -0.026507126520252937,
      -0.08581446221547735,
      0.08227635950608904,
      0.05051610772104015,
      0.055831438863602575,
      0.0781592866717253,
      0.005514127429303369,
      -0.107098456747241,
      -0.07594471818213265,
      -0.10775178338482043,
      -0.0901935850074123,
      0.08326713956368659,
      0.038148504910941836,
      0.0048007029625658105,
      -0.0013287565579049392,
      0.015347756464022505,
      -0.030080038739824646,
      -0.08217377017923427,
      0.06962918127500602,
      -0.06593475516287028,
      0.011137289652951557,
      -0.005562367808585245,
      -0.010809477525419893,
      0.04771612032695781,
      0.029556827605463288,
      0.021189139715564125,
      -0.030028246997095644,
      0.07375346672904126,
      0.019494434470794793,
      -0.08334905565390695,
      -0.053370951290195444,
      -0.03505166779365468,
      -0.031028227553577876,
      -0.016672243838694475,
      0.04092154541917346,
      0.02879026092530181,
      -0.017235193859368506,
      -0.07708895162701719,
      0.043983623581826094,
      0.01834523635290342,
      0.07076663641844738,
      0.0118306922897042,
      0.03174195399331989,
      0.018970787724129825,
      -0.014437527009848496,
      -0.034282577364950495,
      -0.03505544736230024,
      -0.024671399620294927,
      0.17447717684672753,
      -0.03866390190319394,
      -0.07238973178750409,
      0.04536136833538032,
      -0.03083886071609266,
      -0.014356094649682025,
      0.02848704149435628,
      -0.07444390537671382,
      -0.0137457827558752,
      -0.12405533644304197,
      -0.048105388565440395,
      0.0043504397395423495,
      -0.020915847289363448,
      0.07534935872674774,
      -0.005540634749327263,
      0.0014824778261620162,
      -0.0646912074429347,
      -0.03959121345249006,
      0.03873348275838022,
      0.03037571656115655,
      -0.03410129614133754,
      -0.07585283765104654,
      -0.06360181280603819,
      -0.08830061717832606,
      -0.06876472753913838,
      0.021642053981987215,
      0.0970530252025769,
      -0.11196999596583136,
      -0.04829205623333404,
      0.07162998533973182,
      0.027578249252782357,
      0.031061267329353097,
      -0.02770317196651892,
      -0.10311119629809559,
      0.07203002511278785,
      -0.017384495345997692,
      0.014641620380031183,
      -0.016331478735293916,
      0.09661574654588834,
      -0.01978724645972788,
      0.03311172480883445,
      0.04714084122271982,
      -0.03813620260408864,
      0.14159951170431978,
      -0.002490969660385772,
      0.0708147443677921,
      0.03723430508440493,
      -0.11726175647795338,
      0.10709041001677538,
      0.07221363420926002,
      -0.0061059433540454275,
      0.11709464855964288,
      0.23425952608428333,
      0.11645839145209466,
      -0.07054334936319649,
      -0.07739732811609384,
      -0.019442310062739363,
      -0.003426668304174029,
      -0.017497107244082044,
      -0.02589891258710193,
      -0.055201309519513006,
      -0.014484697370526926,
      0.03865584043709451,
      0.009960085342591048,
      -0.14379197912139907,
      0.031625899939972085,
      0.09504718657593808,
      -0.16096266996499722,
      -0.012625818234986834,
      0.021563955062787275,
      -0.0430083023453111,
      0.0069410391699878905,
      -0.06109834414018827,
      -0.03284844470932669,
      0.024769566165042573,
      0.03834343381686581,
      -0.1450420781011706,
      -0.07150850453709012,
      -0.011083725099659722,
      0.05683331644697378,
      0.001937754877039206,
      -0.01305743604521715,
      0.09593254894487281,
      -0.012390713052740589,
      0.13384045429148353,
      0.05423946710534171,
      0.019742472847748944,
      0.07074453867506524,
      0.004345102340642142,
      -0.016114416589035653,
      0.08698539869177677,
      -0.04911309300420668,
      0.06684909526565407,
      -0.010778687561935719,
      -0.014306653554749034,
      -0.01682864175048053,
      -0.0019042798221828648,
      0.1255673960771711,
      0.055411562762143665,
      -0.08079296122488512,
      -0.0916150132424924,
      0.06599707405820127,
      0.0790285304281324,
      0.0014491268423622809,
      -0.0729959612371439,
      -0.04459175027543716,
      -0.05859909974984573,
      0.00428768076200863,
      -0.10709683405402774,
      -0.054415443772278735,
      -0.07531468342982978,
      0.03072342387218455,
      -0.00895851079113176,
      0.020096523555719406,
      0.01860739439323847,
      0.015435544157310396,
      0.02890234399374286,
      -0.039823406775765714,
      0.03224207918050613,
      0.023442075738461937,
      -0.044160478602647456,
      -0.058319422056683015,
      -0.04314769682738281,
      0.1049362476213631,
      -0.14279242989397598,
      -0.23852859712224797,
      0.045599587152516746,
      -0.07664427117874803,
      0.003399356692976037,
      -0.008619718722827156,
      -0.038120208994249304,
      -0.09258750255897613,
      0.04992593352696317,
      -0.009857206613935172,
      0.029888738435605203,
      0.03195506691710218,
      0.002423603167325686,
      -0.032417553312498626,
      0.049155447226660674,
      -0.020982841102403175,
      -0.07067312688100708,
      -0.050580332855013586,
      -0.009440544337482206,
      0.007711678538899886,
      0.07716657646933585,
      0.0679410127305146,
      -0.040521598761390894,
      -0.0701479084742348,
      -0.06066671803727029,
      -0.07523236204600608,
      -0.08827016348333783,
      -0.01131336180231134,
      0.002420499658518709,
      0.01671582352943071,
      -0.1429014997158614,
      -0.014747178711804748,
      -0.060752491466266594,
      -0.11238761268042287,
      -0.09369006636587264,
      0.10164078620358859,
      -0.02732053770437116,
      -0.007573342509384274,
      0.08068967978768275,
      0.0020281284968372715,
      0.08720711559038963,
      0.03309237384755078,
      -0.021194341481872297,
      0.07020838035047662,
      0.030976358776811846,
      0.03977385010326536,
      0.014688344082873896,
      -0.012491178142499174,
      -0.048862984904668595,
      -0.06246886577074546,
      0.011821002261207421,
      -0.004891049852018791,
      -0.03502807616070048,
      0.08053062262408738,
      0.027172107463352226,
      0.0020468684178383428,
      -0.003743756220813877,
      -0.05540405891949748,
      0.02424192382143733,
      -0.04073737716942037,
      -0.01906011195849413,
      -0.041716862108802794,
      0.02429825352530311,
      -0.04704145916605969,
      -0.1022929990225345,
      -0.10518079045970329,
      0.08240420806222949,
      -0.04686898329579434,
      0.03555865756576666,
      0.048262212057310135,
      0.043968702589847065,
      -0.10235154073120185,
      0.024527450432423832,
      0.06471790820639287,
      -0.012048628008002285,
      -0.009796327560963793,
      0.061731649199668885,
      -0.03894769240718968,
      0.12473396309618315,
      -0.03575104210916188,
      0.029778916064022564,
      -0.07989725351849251,
      -0.05636366923596413,
      -0.06859996378135767,
      0.0825171569927762,
      0.06641866961443525,
      -0.06642408681249569,
      0.013822060771894101,
      -0.06399521528511402,
      -0.05797394332675072,
      -0.030586734486903935,
      -0.005144450977475551,
      -0.005864785176255285,
      0.06559094451457767,
      0.12542189071541637,
      0.018004981590303133,
      0.043257714498838265,
      0.13252538077414272,
      -0.12105281849064578,
      -0.05430605270006877,
      -0.1087794133999492,
      0.04177975152064689,
      0.03702778269557102,
      0.1098539058862592,
      0.05295133316189942,
      0.06435353198815918,
      -0.03014802253465782,
      -0.1434052247173463,
      0.0029344701676536273,
      0.0784299504375723,
      -0.06830151538082228,
      0.10980137471102315,
      -0.0906582532824198,
      -0.02835332368870984,
      -0.002825018228437649,
      0.08032061209477702,
      -0.10444693854728437,
      0.004424020212682701,
      -0.033522046159286674,
      -2.256830730197417e-05,
      -0.07081092625396883,
      0.042356466268912166,
      0.04169996460055592,
      -0.03535299712687227,
      -0.003753198994771167,
      -0.007031479430735919,
      -0.03645619359647759,
      -0.09052415111425895,
      0.02778869836033921,
      0.01735485806599312,
      0.060128174048171036,
      0.04568406572659658,
      0.029266961546536695,
      -0.047988003218415294,
      0.07740740871665165,
      0.057878526332598594,
      0.00790784489498918,
      0.020579582138169204,
      0.03589851965702854,
      0.020975117702926413,
      0.19037986202530338,
      -0.005193045737536935,
      0.050330260482002676,
      0.025935914241446242,
      -0.10887673479683536,
      0.11079179623698918,
      -0.016247367332679858,
      0.028691937148751897,
      -0.09308661573759944,
      0.11016871016876963,
      -0.06953632213765185,
      -0.01879144429554002,
      0.08464926187684514,
      0.01988783391122896,
      -0.004755497498678949,
      0.08805217376229836,
      0.008200870945697535,
      0.009906921847459376,
      -0.09509265952068177,
      0.005165513453701272,
      0.02992844105472825,
      -0.10678740520173337,
      0.019657967294208035,
      0.12741900308015755,
      0.11690761425039799,
      0.07292153103734865,
      -0.0069055065227939085,
      -0.005991424884792437,
      -0.03307280610879224,
      -0.04924685816827477,
      -0.03164776183905092,
      0.04874071404455994,
      0.07902102824098362,
      0.01663384903535258,
      0.10594742614996361,
      -0.03306325289587481,
      0.06985283197930975,
      0.13867465266101278,
      -0.003388584589292495,
      -0.05622821468833842,
      -0.06715300502625063,
      0.07088963672957971,
      -0.007512086957060158,
      0.014406586472450205,
      -0.06006825766414566,
      0.02574700534476903,
      -0.12773010714586616,
      -0.01050650906916886,
      0.024957074445137888,
      -0.11532481929377497,
      -0.0433465762509723,
      0.08721406996279613,
      -0.11220461580366246,
      0.012504337461786566,
      0.026999173970102746,
      -0.08500354122770748,
      -0.08396219539927464,
      -0.032342505956727184,
      -0.09449961143119197,
      -0.0013818271354423502,
      0.10944409326254237,
      -0.021765199379037137,
      0.03793170811176766,
      -0.035160060416467305,
      -0.010069654936152044,
      0.09986675290950943,
      -0.08272953169458877,
      -0.034335781326474586,
      0.01809121305397612,
      0.03116434175035702,
      -0.03459783320771845,
      -0.13122362977105081,
      -0.027470607595679552,
      0.01446080498477593,
      -0.010737036898298758,
      -0.017864061004387668,
      0.016118470420640147,
      -0.03746918368285303,
      -0.0015031858714327439,
      0.03645339861689966,
      -0.036822296054896106,
      -0.09801109208176625,
      -0.08183307507094616,
      -0.03688960830991507,
      -0.03401503507080086,
      0.06194195693367531,
      -0.05693844574048401,
      -0.00725544973681363,
      -0.08739456403206844,
      -0.07234555003316866,
      0.012249929314697837,
      -0.05315300500099696,
      0.22850461511020734,
      0.13257702617683792,
      -0.034689158317687846,
      0.005671326678431283,
      0.007916728252744386,
      -0.11550775707890837,
      0.025452340338557398,
      -0.08249032389428494,
      -0.11883457410351507,
      0.09495881706493896,
      0.08029974274363974,
      0.013668883103295655,
      -0.018334686695912334,
      -0.13437553381129405,
      -0.05914437959897714,
      -0.09262806878084656,
      -0.09870763282803317,
      -0.01380057368346771,
      0.03395578925050696,
      0.05405065152548045,
      0.08130152990164542,
      -0.1581078097555782,
      0.014476755921487094,
      -0.037941592200966046,
      0.042217772965982045,
      0.04448504084598558,
      0.017837712747617415,
      0.04365541008610244,
      -0.017506561471498764,
      -0.04058143376597615,
      0.03635830276389523,
      -0.059354799127146,
      0.02011333918218158,
      0.04334060699163026,
      -0.014078908172364152,
      0.020115666711288074,
      0.0032995076715494846,
      -0.09501061789174503,
      -0.019107978996460984,
      -0.030816443045623466,
      0.03575250895983068,
      -0.15136222352165737,
      0.04989634919832625,
      -0.03982458652371572,
      -0.012583166531894235,
      0.032772548874439075,
      -0.1089805702076087,
      0.02256774901036515,
      -0.08041001098358745,
      -0.04418000128120328,
      -0.12761752375762891,
      0.09678408056134258,
      -0.03200220604371759,
      0.02770293757901813,
      -0.020025829625976585,
      0.043616675082229675,
      -0.024032916199945076,
      0.1509537451737912,
      0.01742458310353686,
      -0.01681573669255682,
      0.03215035250039874,
      0.01275348102937875,
      -0.04444197348243598,
      -0.022130361611374806,
      0.009645290007433143,
      0.14707809974423766,
      -0.08765724610234524,
      0.059348157134336645,
      0.03683966731474944,
      -0.0596356417588622,
      0.02554679524114642,
      -0.04894770134091602,
      0.008165868365910161,
      0.051096854341605234,
      -0.01151652396714949,
      0.04535750830156618,
      -0.15574985367909736,
      0.07296729410556155,
      -0.05246987526980949,
      -0.05244002484121406,
      0.014313806726407094,
      -0.048261370640328816,
      -0.025853869103598798,
      -0.021482457182148234,
      0.044511271963309035,
      -0.04401825299265764,
      0.09752074351644803,
      0.006695587343686159,
      0.08110592200916342,
      -0.03169289152816313,
      0.06023585599006154,
      0.1526611045046765,
      -0.06566768813043461,
      -0.042419946569903416,
      -0.13481194203390248,
      -0.08811642590331774,
      -0.02782452955163642,
      0.05366275199928983,
      0.04567482655465302,
      -0.0599904553608758,
      0.12187991739363227,
      -0.03649613682451131,
      0.0028476533250129336,
      -0.11696432873705755,
      0.0368876309313005,
      -0.14535401181768717,
      -0.13270974425007576,
      -0.021715713953244425,
      0.02308913981909841,
      -0.13391162669867085,
      0.03454802736014422,
      -0.11812061941284747,
      -0.03105441878048819,
      0.021631233506577065,
      0.07179879190580374,
      0.0592811351069799,
      0.03739076304321143,
      0.026903888183832114,
      0.11524510462381064,
      -0.01836371698297456,
      -0.03259145732685382,
      -0.036215165999881886,
      -0.06556312569885306,
      -0.008906281077153095,
      -0.01631475580201086,
      -0.11092757876686303,
      -0.05133851022850501,
      0.009149629542149693,
      -0.05005324128769686,
      -0.011301000683220683,
      0.021460158463534072,
      0.1256896857580608,
      0.024502432428010864,
      0.07092368156403776,
      0.0633288945213956,
      0.1379991749793156,
      0.010123433376014448,
      0.04527048683894377,
      0.0486542497140466,
      -0.050590211346627584,
      0.040402727239164694,
      -0.03639173003579696,
      0.07875262328026349,
      0.09749861703061811,
      -0.043416761791246636,
      0.08079528408305402,
      0.00592624813498655,
      -0.024514163520494084,
      -0.08504521876410333,
      0.05788823269985561,
      -0.01920264589931012,
      -0.11104941266677107,
      0.039729765819373396,
      -0.024340049275420717,
      0.037283223839264815,
      0.08979334909601847,
      -0.030307216713970506,
      0.07978218840100619,
      0.09190946704382819,
      0.009761416762063373,
      -0.04071130378692478,
      -0.04489486366651034,
      0.10692895147699985,
      -0.050811648896454766,
      -0.03123275897241384,
      -0.05266483066113156,
      0.01769891267817784,
      0.0424071795572406,
      0.01702947472092249,
      0.08910453525832962,
      0.058671173286709316,
      -0.0725557694569644,
      -0.12617909007238953,
      -0.08092834325987393,
      -0.018219852058167563,
      -0.0177633029715465,
      0.020274776293366714,
      -0.10755297449765193,
      0.0651468254677373,
      0.032186208461602174,
      0.0009991886443085813,
      -0.03239683308819047,
      0.06021359146519273,
      -0.03617689125484039,
      -0.03382974551941741,
      -0.11672851825103123,
      -0.04364812686686367,
      -0.042801881413517553,
      0.019216019381859094,
      0.06421713334483921,
      -0.07410120930882812,
      0.08403186635909708,
      0.05804569082706889,
      -0.09060570234755255,
      0.017221879362717227,
      -0.12172613345415051,
      -0.04687429499827789,
      -0.011634512293908392,
      -0.026104237440639676,
      -0.03143830130891761,
      0.06316629461952793,
      0.1576417762798659,
      -0.03942691823226918,
      0.035624849772538866,
      -0.0036144764253550716,
      0.005673667346079972,
      0.07398368482916645,
      -0.05174228530688562,
      -0.048120540844027386,
      -0.07789451393478354,
      -0.05553629781467974,
      0.0007964979415956252,
      -0.0675358471845051,
      -0.07414689208671696,
      0.05749455512409706,
      -0.002027957535661143,
      -0.00800346210866791,
      0.010022404946160515,
      -0.02122140593055657,
      -0.010064187765214597,
      0.01601368896933887,
      0.00281165583286026,
      0.08064560820460395,
      -0.04380045072355207,
      0.028602979876248782,
      -0.030660003100640765,
      -0.029891306427361503,
      -0.037902208086528125,
      0.04079320771599742,
      0.020812552497437086,
      -0.01977498013640636,
      -0.03118536035680498,
      0.04033259737065288,
      -0.006664684635588738,
      -0.03400382429946395,
      -0.06623554094296395,
      0.004894594705368536,
      -0.07849230792374734,
      -0.11062762305365764,
      0.0023866144071592547,
      -0.02763108693129641,
      -0.04479467531801305,
      -0.007385983140045107,
      0.06003039900152367,
      -0.015186827755652587,
      0.030925762575031546,
      -0.010296621080069837,
      -0.027794015787811283,
      0.038978071489222214,
      0.06973898199501517,
      0.0009128006679411796,
      0.005324636448504643,
      0.09765395901517844,
      -0.09615223359698534,
      0.02713609227443626,
      -0.0026983615149348385,
      0.019288164121612484,
      -0.007275070458111657,
      0.04280212057622265,
      0.049633372368525136,
      -0.007608391318788318,
      -0.01780615755194407,
      0.00024169645310787328,
      0.15706594952007266,
      -0.12359510176141598,
      -0.0558771500999163,
      0.05552649118993284,
      0.0015387595780362012,
      -0.04913884704617813,
      0.01750865281423641,
      -0.08412779188287205,
      -0.03308328639702217,
      -0.024656294444379372,
      -0.047978285325669306,
      0.046188171095240885,
      -0.006844280535114515,
      0.07869445859345313,
      0.04701877703522364,
      -0.01330587651007864,
      -0.0016220543169502887,
      -0.006192194375310463,
      -0.07704330354338135,
      0.0723053363395452,
      -0.0010885191280768822,
      -0.06597863590992409,
      0.014431856039006763,
      -0.018642161850462583,
      0.10771826941080057,
      0.11272125794449508,
      -0.11131963947318553,
      -0.025827069916936844,
      0.10570195182214129,
      0.05719868355116422,
      0.02697745181981459,
      -0.09459152008157329,
      -0.04980801461325938,
      0.03707406857905565,
      0.01536755982097135,
      0.03541132578703523,
      -0.0493318304778724,
      -0.1311258661638272,
      0.0033525495180281254,
      -0.06550336746162773,
      -0.04998526465197778,
      0.029936837896559508,
      -0.029696922706579056,
      0.018888446069374416,
      -0.00792567232929422,
      -0.015417038944460195,
      -0.0046124986399576655,
      -0.023734430309669936,
      0.04897282737078208,
      0.04521644696708064,
      -0.017485435304125874,
      0.06030289285567651,
      0.0901930569274771,
      0.06877418009503437,
      0.002280408727935953,
      -0.003425458721424389,
      -0.027734223279340598,
      -0.12469160333352264,
      0.06820560679591534,
      0.15495824983455878,
      0.08832093371852455,
      0.0011711507755295884,
      -0.16915321532249566,
      -0.012826162490746385,
      -0.05992189613244799,
      -0.020616928453547814,
      -0.036031815008823916,
      0.02365660289303002,
      0.04332326080744152,
      0.05081492616483109,
      0.007008250514337866,
      -0.17295280457577916,
      -0.04368533979161424,
      0.03843932691172417,
      0.030240485753451923,
      -0.004429016484148661,
      -0.012140008767442425,
      -0.06801761069543942,
      -0.010767573727527612,
      0.01145030330435861,
      0.010896644587821105,
      0.08744359420459905,
      0.06944980105961894,
      0.0032583401011679015,
      -0.13506337364698737,
      0.029207027908854044,
      -0.07754579602645546,
      0.03792902413529737,
      0.051329046734089424,
      -0.04846725544323389,
      -0.051079459568361615,
      -0.05250916923859811,
      0.05720897587464825,
      0.023873653957479167,
      0.11061706354274033,
      -0.01895344809913469,
      0.06889928738997925,
      0.03867691131404211,
      0.024655584348426098,
      -0.0919752391931689,
      -0.15595933545741664,
      0.03566574349776527,
      -0.0841709042928162,
      -0.1293702010080596,
      -0.09785229040443784,
      0.06713435705664089,
      -0.054978923208609476,
      0.06087271328706295,
      -0.030457489757904768,
      0.11303053446857605,
      0.04094763863214332,
      -0.10924993909953692,
      -0.10389536322220413,
      0.015805204119129987,
      -0.07925586005887277,
      0.05724692012890877,
      0.045574447951357226,
      -0.08545856101134627,
      0.19803476072049178,
      -0.011761840396138978,
      0.04261885991911927,
      -0.05236353041136753,
      -0.05386492050990876,
      0.15093562811408126,
      -0.06838912657802385,
      0.006138109648274257,
      -0.06263232460170638,
      -0.11616641708506881,
      -0.1381454627881389,
      0.08694380047605935,
      0.031739738741691004,
      0.07125113870734696,
      -0.031190542912195734,
      0.028761219774961946,
      -0.07728117804813464,
      0.033199590868245095,
      -0.043250081671617244,
      -1.2321853507809492e-05,
      0.0005090297712709715,
      0.03255892354341891,
      -0.0713320743168772,
      0.06848255731624657,
      0.012055188071704562,
      -0.031147845273019562,
      0.03504357698467737,
      0.03166461457339884,
      0.0809612460151951,
      0.21215794364885848,
      -0.04574489112371601,
      -0.04716846716415621,
      0.03523532569500046,
      -0.11127442742419108,
      0.12540272584479553,
      0.0383132790546963,
      0.01452189684191584,
      -0.172659469315316,
      0.02832386524014281,
      0.008387284462066253,
      0.059874456763205595,
      -0.06141631833923804,
      -0.08678714837809967,
      -0.10109110452155069,
      0.03451381439176495,
      -0.032390703681583505,
      -0.010343150405552325,
      0.006674746993580815,
      -0.07482238509812707,
      0.10630645868450625,
      -0.05962631265736104,
      0.05752082769026476,
      0.0823050392429799,
      0.02167672485956768,
      -0.030588241018520063,
      0.13206502578259033,
      -0.05401891695773409,
      0.15015290935087458,
      -0.0511785978406212,
      0.0048100406210306295,
      -0.03918546927594503,
      0.020115010907609022,
      -0.07871352434006477,
      0.04605698177140304,
      -0.07150285067981613,
      0.0684127352985734,
      -0.14510924550870696,
      -0.03640803777015154,
      0.00341174719790587,
      0.04022714470114602,
      0.04358413431240045,
      0.05423999680645153,
      0.05558310108319805,
      -0.007530483545685665,
      -0.01591638253739885,
      -0.07749320794391608,
      -0.007649434984602204,
      0.020864743779632815,
      0.054545583593053545,
      -0.03718129976332025,
      0.19051049796944652,
      0.018073619912434835,
      -0.10738439846209952,
      -0.08479660941125056,
      -0.03312331052176646,
      0.0010728458024448467,
      -0.01338826375881553,
      0.09760501657646355,
      -0.03047806013754436,
      -0.051934076908138754,
      0.03501762795542812,
      -0.06273060306227866,
      -0.052177026032273276,
      0.028264962625448895,
      0.15541005669644725,
      -0.035164906970440356,
      0.16433872971026006,
      0.04067436309893104,
      -0.021671541725534465,
      -0.07235028259681926,
      -0.10973922235660646,
      -0.15820335278796643,
      -0.01637556861127334,
      -0.03577804488073154,
      -0.060811344607802645,
      0.004412586082345999,
      0.006885595633523857,
      0.04222426857206653,
      0.07016719226194733,
      0.021325761701738083,
      0.01867450015062909,
      -0.0017300037472940742,
      -0.034717508966525534,
      -0.03259244983588366,
      -0.0869556782523345,
      0.006994304876162181,
      -0.01654627023537953,
      -0.09869206061312143,
      0.000302464741271584,
      0.08379657213103507,
      -0.09065400964644654,
      -0.011072114295775336,
      0.03100658345814584,
      0.05504435095934756,
      0.0812316051017487,
      0.02675254091954585,
      0.023078609844588628,
      0.035629400957380604,
      0.07371123956715174,
      -0.05590540944212857,
      -0.013461949481904534,
      0.02467665372486622,
      -0.1498463652722473,
      0.057647027408623895,
      -0.054968598009339745,
      0.019993207979250402,
      -0.01745699077657014,
      -0.008204313029350868,
      0.13241467570495144,
      0.009455086846440914,
      -0.08017185110798458,
      0.05126556795313375,
      -0.05846224747867226,
      -0.0660736119389519,
      -0.09599446150579018,
      0.03850705968659126,
      0.04890331271644818,
      0.01294425887794501,
      0.13294169197208452,
      0.050733873059386037,
      0.06308169168352802,
      0.013432865556671619,
      0.018525689086217278,
      -0.0014291843793434245,
      -0.044891523366139996,
      0.05733822957834122,
      0.14693488587120232,
      0.09579622140688211,
      -0.018206818989276945,
      0.028158461100939478,
      -0.07032917634046645,
      0.07017623142701526,
      -0.018860350712598426,
      0.07557343693991236,
      -0.053988686205116605,
      0.07942604374244007,
      0.09884172110720969,
      -0.0201495296255132,
      -0.011516195428122787,
      -0.06992812111733605,
      0.015335534759257832,
      -0.0028627920587489535,
      -0.0219811063182451,
      0.07168757908816402,
      0.005026142100740118,
      -0.05501912273426853,
      0.038947335807980925,
      0.11203133368688338,
      0.0005985995890694989,
      0.06153790854175849,
      -0.05917854829371165,
      -0.08676545699108362,
      0.05910625068008471,
      -0.03873494234737702,
      0.0797562174231194,
      -0.01924972153902931,
      -0.03363005404517808,
      0.0973576881137173,
      -0.054287580986448564,
      -0.13296549231360222,
      0.024737342568475137,
      -0.05232116142519831,
      -0.06665557563087403,
      -0.03439179977345894,
      0.10670491766456836,
      -0.00961342374059733,
      0.09483174479736571,
      -0.08322350335960087,
      0.10440158585950741,
      0.03956033017998222,
      -0.02227618482126678,
      0.014013469401483791,
      -0.027260757904453856,
      0.03327644570978294,
      0.028893889545345695,
      -0.022318502358329193,
      -0.028129014086494757,
      0.011445861850914136,
      -0.08601701611389208,
      0.031038966922607162,
      0.045472915086203235,
      0.1024026514810093,
      0.06140856569490596,
      -0.028490495188196463,
      0.0263105412332077,
      -0.016612612633863755,
      -0.007867097194281818,
      -0.04319867434042454,
      0.021980285437145416,
      -0.013655895636249119,
      -0.040294484721183646,
      0.1172089252395058,
      -0.004358620421083627,
      0.023712614864270093,
      0.04354431077960006,
      0.01734347426933802,
      0.0652940542177657,
      0.040795823440231485,
      -0.009167589439096346,
      0.03407237287760731,
      -0.030211588053043772,
      -0.036956433026271086,
      -0.1025712420981439,
      -0.011886084937629663,
      0.030002968522077213,
      0.1321850478205321,
      -0.022745106009394257,
      0.010652362317808719,
      -0.08616702577252273,
      0.00039453183635243473,
      0.034349584566294875,
      0.04087643090075733,
      0.05957123818343258,
      -0.0162431569508991,
      0.033064737375541914,
      -0.0033258854803406277,
      0.11497792815096969,
      -0.03136805326007521,
      0.045726423232380346,
      0.005806702823381362,
      -0.011387427827128285,
      0.04697976033953992,
      0.07533792558163827,
      -0.10179099568753798,
      0.0589063327151944,
      0.03181561367338249,
      0.011056664778147318,
      -0.13436807235354878,
      -0.013372707674035833,
      -0.007821432070522369,
      -0.01082126401158474,
      0.09263999595999384,
      -0.05855360342823152,
      -0.01649663364579439,
      0.027789347853146937,
      0.07253798003775376,
      0.01360802458509691,
      0.021967220788554478,
      0.08058994806550152,
      0.008602097473268617,
      -0.018771138820534466,
      -0.00584441870014507,
      0.09023465949498408,
      0.11698943296865469,
      -0.09220384524159282,
      0.02520047884557493,
      -0.04685069245242502,
      0.009797075405334863,
      0.01649355909157018,
      0.045479657600970336,
      0.07276013294635632,
      0.03630097247929915,
      0.03161445885718101,
      -0.05304185292486141,
      0.12890399886884243,
      0.02970197068892895,
      0.07677804131340389,
      -0.1316988545760036,
      0.023198410778205114,
      0.028450088396194752,
      0.10226863212633684,
      -0.02638299592263287,
      -0.07699952587402857,
      0.08540031449677626,
      0.00842431016156009,
      -0.023470943424122162,
      -0.12714010064193135,
      -0.14526445368321006,
      -0.012096652855564043,
      0.06616508000693683,
      0.008354237489611073,
      -0.024461665478990875,
      0.07302494037920178,
      0.04717720380964297,
      -0.004304813464624317,
      -0.07934970757083615,
      0.011546685967663829,
      -0.057583543413408045,
      -0.03739807327547365,
      0.003559219045002603,
      -0.028972398824500215,
      0.08456213177881211,
      -0.018497596612658297,
      -0.07835976735782085,
      0.10525035871311456,
      -0.07485219002419156,
      0.041201566357793054,
      -0.0013863947938033666,
      -0.09532681118811807,
      0.0015462317991037054,
      -0.09885149079043713,
      -0.013955922102821051,
      0.07320867240032326,
      -0.018459414767285524,
      0.054141386965603056,
      0.03781199360930401,
      -0.08967669672769663,
      -0.019209294028157225,
      -0.11085387980432537,
      0.015314911156423548,
      0.009258242293597056,
      -0.1450606719528729,
      0.0005170041087068541,
      -0.0702903428740132,
      0.0382017876751016,
      -0.02899768423655889,
      -0.11909286839393535,
      0.11755754165373028,
      -0.03993316084342793,
      0.045811159510069754,
      -0.008846945788477448,
      -0.019683582460371177,
      0.0007985689355300056,
      0.02127206396960073,
      -0.04374561555360482,
      -0.017642200741579496,
      0.09606566922889846,
      -0.042324868406723,
      -0.02322219089029562,
      0.08652102855291853,
      0.021885952159673577,
      -0.07834615269559066,
      -0.11806939096182635,
      -0.06124561811212125,
      -0.018336737049002513,
      0.12886900215969438,
      -0.04317072194871372,
      -0.006874171807167261,
      -0.043247506773729606,
      -0.06295565104518952,
      -0.033686514697932386,
      -0.019834143019970045,
      0.0132851672304607,
      0.015863641251675498,
      -0.049970092411418705,
      -0.009990698877251545,
      0.14108105588500605,
      0.00877101935729552,
      -0.05436738560675597,
      0.009948677992133904,
      0.016794524369476795,
      -0.0784509359020053,
      -0.04610957672079995,
      -0.018072974758881897,
      0.04761613091416672,
      -0.07049989750159114,
      -0.06386513283799869,
      -0.01101039837464829,
      -0.055167668959465926,
      -0.13361223970519556,
      0.029931882893260504,
      0.1389270390907262,
      0.01659661403161983,
      0.08390457667427452,
      0.11694840899020903,
      0.04243366028401894,
      0.09502675849460704,
      0.05084611814718776,
      -0.019747222139187982,
      -0.036194545580111016,
      -0.027734768269901882,
      0.08670371624311105,
      -0.014517720057834402,
      0.0541985047307704,
      -0.08380647470458397,
      0.05623800891047458,
      -0.0637693356243669,
      -0.010890862566287735,
      -0.08688466597399183,
      -0.02946486553070436,
      0.022239746339981166,
      0.044361125283872496,
      0.12953204990334763,
      0.03768152019956999,
      -0.13673825914512008,
      0.26837239830243714,
      0.0381126933829967,
      -0.08282070939309151,
      0.041763799699358985,
      -0.0012871513657540053,
      0.04151264294356018,
      -0.008184514791264232,
      -0.11192553826103119,
      0.10559633632846024,
      0.08894625144158139,
      0.0541081437943748,
      0.01386940875583243,
      0.026626640995907495,
      -0.038713522955254806,
      0.011981204525851899,
      0.0745270297371968,
      -0.03906035131152545,
      -0.04708646330563966,
      -0.00146064196310761,
      0.05863178815751231,
      -0.13134664186255912,
      0.024512208848807598,
      -0.04603391843934509,
      -0.049469299029081044,
      -0.004358338722238922,
      -0.011271170878014684,
      -0.04364332663819304,
      -0.13004443852750683,
      0.06414692450503173,
      0.05615741812453223,
      0.005031953496361586,
      -0.042146758537415355,
      -0.11783392846584954,
      0.029171704057035917,
      0.01799961819948078,
      -0.08815993923086676,
      -0.13361681065818945,
      0.02301561580311858,
      0.11179906560080356,
      -0.001552729568722334,
      0.027845010276940852,
      0.03583748339999914,
      -0.05125198903870713,
      -0.013878135077031159,
      -0.053447694512158396,
      -0.015411938627888373,
      -0.09913291451274821,
      0.11377873279702182,
      0.07099196267714224,
      -0.032655553788307194,
      0.10580881292426526,
      -0.04708177320451636,
      -0.029033283453261352,
      0.03866126370055492,
      0.07401705483289875,
      -0.06448293239327398,
      0.09352481778314092,
      0.026726821553563235,
      0.00735141384571926,
      -0.001385422783103068,
      -0.042548129713919504,
      -0.08257480421990165,
      -0.042375389596629176,
      -0.002351361282884111,
      0.12926242116504136,
      0.011433641532154353,
      -0.1232568934562435,
      0.01445329456860238,
      0.07825747940142685,
      -0.012117991155853677,
      -0.10419604775360351,
      -0.029660040482887676,
      0.04448173227667054,
      -0.0718407061176215,
      -0.05943329975667175,
      0.021239687529189383,
      -0.018049484450150546,
      -0.0834379100780372,
      -0.06243801274498422,
      0.051677874750553146,
      -0.09173174199755063,
      -0.059110071773777126,
      0.02810277459679638,
      -0.0109231521279252,
      -0.07994678165197731,
      -0.011505258910128015,
      -0.04880742661243738,
      0.008983520219180384,
      0.07906725757202447,
      -0.0055454573794007965,
      0.04366010620976666,
      -0.010358088681400902,
      0.05838112881473466,
      0.023664271154679204,
      -0.03740526066021297,
      0.08073959690738122,
      -0.062141060798160536,
      0.04849380614152301,
      0.14767530022124253,
      0.06249642592351204,
      -0.012319936619641834,
      0.010346174386342315,
      -0.062478964665349405,
      0.08427401087525498,
      0.13839330240477368,
      -0.026492293072805703,
      -0.06767460857893598,
      -0.044497234557476666,
      0.01850929228755001,
      0.003001240778145511,
      0.04771366177699668,
      0.010620901808378781,
      -0.0466439216552644,
      0.024693636000283195,
      -0.016107673455796043,
      -0.047630927735624655,
      -0.002248278751520399,
      -0.01893698887344118,
      -0.01910490384168218,
      0.07351180023581606,
      -0.0826069297140072,
      0.009064888661725229,
      0.04357594039931445,
      0.028980753522927005,
      0.08663057909425592,
      -0.0023606478918695604,
      0.08313144174423356,
      0.10451662944937075,
      -0.1482940435992595,
      0.06466543762821267,
      -0.1148346269843893,
      -0.034042024544630844,
      -0.08226592015114804,
      0.1256676347217255,
      -0.0904428926537856,
      -0.08406190526661107,
      0.04419288929831892,
      0.03740380089003448,
      -0.07812742589672944,
      -0.09938073074778533,
      0.010785618223378774,
      -0.06920703973476935,
      -0.04939307292514136,
      0.03738755528154078,
      -0.05883115590224648,
      -0.05958493003540835,
      -0.11472348148595832,
      -0.08369574267358709,
      0.10044804832408528,
      0.06618434992514477,
      0.06274688613419668,
      -0.029325655531545522,
      0.04857263204769748,
      -0.1024119099525442,
      0.02235352471392925,
      0.08401243575164827,
      0.009338131932567353,
      0.05902499910084714,
      0.03635706441227464,
      -0.03898269175647689,
      -0.06257210567255199,
      -0.03631301092866666,
      -0.08536684337794948,
      0.08185504224290285,
      0.025100848037643297,
      -0.07742033491986995,
      0.04206189322045285,
      -0.045163808937790095,
      0.06611633921937964,
      -0.008211127038985041,
      0.08429318654522672,
      -0.06554689579621556,
      -0.05000333622620242,
      -0.04191246943225089,
      -0.04769109960653269,
      0.04992201035027736,
      0.07278215956997992,
      0.014478266732669038,
      0.0246349736520575,
      0.06120721497077565,
      0.004858672011503649,
      0.014439349890901848,
      0.03767525177466423,
      0.03324995044347062,
      -0.009857307658486244,
      -0.02604334543113894,
      -0.06738639514391262,
      0.04945788185039116,
      -0.045413189592378,
      -0.07836609695939642,
      0.08134532865102943,
      -0.06615772271722863,
      0.04158396982946368,
      0.051221467183539864,
      0.06702200515330463,
      0.002033743994203948,
      0.14954174607648557,
      0.009291403463390536,
      -0.07451261578362536,
      -0.09017176802196797,
      0.03806891387633402,
      -0.010322298213214766,
      -0.020329678171842162,
      0.2013899024018667,
      0.0001616458790724202,
      -0.0707928935025764,
      0.03259936226275802,
      0.03098412182900278,
      0.017044854676706297,
      -0.047385833697471576,
      -0.07906164452346767,
      0.008596456015461135,
      -0.030606262042692338,
      0.04945942058086276,
      -0.03860753957620041,
      -0.07827868757913285,
      0.05431350410931596,
      0.10047652284545966,
      0.06267641025463963,
      -0.05659233845198452,
      0.02287576676498765,
      -0.0025380150764169563,
      -0.01784736724922605,
      0.04205220119474532,
      -0.04079930086777295,
      -0.038163151716321224,
      -0.0028190256421972816,
      -0.09779055056995557,
      -0.026810300478213023,
      0.0655489875623124,
      0.010093034716023021,
      -0.010920463715437135,
      -0.09025449395762478,
      0.021084371489855862,
      0.0036413057020667594,
      0.003067139003974019,
      0.10980877140657763,
      -0.028339676632694013,
      -0.01373165471062501,
      -0.09327067127274245,
      0.039649691247619766,
      -0.061774119131102694,
      0.15030081626299796,
      0.11338369483202342,
      0.027326221799643072,
      -0.011362914584188236,
      0.01595374776297303,
      -0.09489656607147416,
      -0.059167093363456554,
      0.00024256360117224382,
      0.062078747401512015,
      0.07469141102389736,
      -0.0693306410007073,
      -0.0019467872514746542,
      -0.06254708511835728,
      0.04656226211179392,
      -0.07342695672913313,
      -0.08594701232680037,
      0.0055645801690815564,
      0.083756482169618,
      0.12034099994959903,
      -0.036356783903756254,
      0.03663055391195344,
      -0.10382857807229552,
      -0.003270724886584607,
      0.0013067290763230266,
      -0.024536229711292934,
      0.15064544068751862,
      0.0040861371039250804,
      -0.07200757634045184,
      0.06536271595738771,
      -0.018645209347600476,
      0.04120306996797159,
      -0.01403404054978366,
      0.06095149702952983,
      0.008832368079200447,
      -0.07649312768176096,
      -0.03951477508622275,
      -0.05443639977093068,
      0.022272682831934256,
      0.11531727871363777,
      0.024002744514278876,
      -0.02068167564004342,
      -0.0680352922361403,
      0.14882430771241617,
      -0.13224009307093557,
      -0.11297764881153505,
      -0.0009042992064261949,
      -0.12296756295234987,
      -0.05649775362497767,
      0.021416725253962824,
      -0.00037020498312693127,
      0.034493855433772314,
      -0.029220676866511038,
      -0.11421486430264677,
      0.01100307972098005,
      -0.01354641636607268,
      0.07674442294892826,
      -0.037755060103418836,
      0.03497464228980538,
      -0.03782057172451515,
      0.07101808847161886,
      0.10172746231959826,
      -0.06252447690712597,
      -0.11319694281724513,
      0.15332780544088875,
      0.005953950393189157,
      0.06757959667573317,
      -0.020331191468961108,
      -0.12060567324946204,
      0.006068800008998033,
      0.004886425964975356,
      -0.1049148910148489,
      0.02468756363512286,
      0.009684100236890352,
      0.030538906033091534,
      -0.08650202924201528,
      -0.01807130616534079,
      0.04239371780530768,
      -0.10253753279422573,
      -0.028530110180628364,
      -0.02694345781995941,
      0.06222684275478784,
      -0.10972340091319613,
      0.022416713762409328,
      -0.11336204721913266,
      0.0465038723899118,
      -0.11604291815205822,
      0.04525496185116974,
      0.03942272380147309,
      0.026756716594266268,
      -0.00384014621908154,
      0.060484034048348664,
      -0.1280828449777356,
      0.06992574514058408,
      0.01600998925034954,
      -0.00015795941781849752,
      -0.027319397593607717,
      0.11241858574989146,
      -0.06603298065868152,
      -0.046001391732717174,
      0.0600234716147855,
      0.10210464728782677,
      -0.008354849353832489,
      -0.07697773254073924,
      -0.05725877499136743,
      0.031827876405296066,
      0.06236341883211485,
      0.004052884516511434,
      -0.18127035228902313,
      -0.0517854918793444,
      0.023814638560624567,
      -0.1101032370949753,
      0.025029305084271626,
      0.14609654174582548,
      -0.013196347227132798,
      0.09237361457237857,
      -0.030744912535627358,
      -0.02882435951127996,
      0.06509552843241255,
      -0.04824729038178318,
      -0.011790975482463698,
      0.036707121379483405,
      -0.034303122754951766,
      -0.03256189296763462,
      -0.05202270377132215,
      0.057753082122782115,
      0.08813574315978179,
      0.028655454445161436,
      0.20710073141823698,
      0.07156718110635445,
      0.02957176087715048,
      -0.011808141481206388,
      0.039506528588944954,
      0.10214614697258115,
      -0.11062734296744707,
      0.01583420258517975,
      0.13233711781646557,
      0.050305978350509734,
      0.0825725501406882,
      0.11783773602279847,
      0.013895043290379595,
      -0.067959059106379,
      -0.048680089295574915,
      0.036078663927588434,
      0.023919654665049448,
      0.0424540821545424,
      -0.01456491402951817,
      0.09741492360416885,
      -0.033128086886940335,
      -0.04476550100387712,
      0.0027588285012998958,
      -0.02264835229555511,
      0.062419527565186865,
      0.01268357912831286,
      0.07964504381435765,
      0.006538778289525754,
      0.04309306368564133,
      -0.07347103196478119,
      0.06510253788881899,
      0.1257083809217005,
      -0.05992042872502367,
      0.016833861298623885,
      0.06813815764786632,
      0.027187544764756127,
      -0.12145937925830785,
      0.054955833786495094,
      -0.1018507779075459,
      0.006065738050621985,
      -0.017922495006568576,
      -0.07049734820799823,
      -0.044350136133321005,
      0.04679032133564441,
      0.09737559691372584,
      -0.016329436746487486,
      -0.14023954573812827,
      -0.009327832278987494,
      -0.09496129366357133,
      0.029612174215072812,
      -0.11437935223901663,
      0.09360969803939843,
      -0.052027456512745957,
      0.0879167942541858,
      -0.041864531957209766,
      0.09029250380048873,
      0.03722061389654236,
      -0.08667920630773705,
      0.046108285618157684,
      0.008400839116064028,
      0.0462147771013634,
      -0.0315952641621417,
      -0.09732405547029911,
      -0.11819089133263502,
      0.00404504970917997,
      -0.04000223895441976,
      0.026060747005965515,
      0.14538624071125278,
      0.04503472067728851,
      -0.05814335322509277,
      -0.07643316691477058,
      0.0894553665875425,
      0.05836478394559936,
      -0.07688074515242532,
      0.023715964349889096,
      -0.0073963855037205905,
      -0.05085841245911788,
      0.14169767030993394,
      0.020149962852330623,
      0.042731242426829824,
      -0.0015526755285858087,
      0.01906880724626805,
      0.13975929725000935,
      -0.06665226286966652,
      -0.0791017913333728,
      -0.11892806559999652,
      0.05258323245914122,
      -0.04891652466343457,
      -0.06075693899379641,
      0.02758561206310352,
      0.02467683809417986,
      0.07904244743125224,
      -0.0014086697687466442,
      -0.013487637804070718,
      0.024940376356715803,
      0.008000620971587265,
      -0.06973158530647619,
      -0.03331186278053854,
      0.09024641535665316,
      0.02597765801354658,
      -0.007441389867654763,
      -0.08692504432232538,
      -0.021473161764807947,
      -0.08822497863667098,
      -0.08242112174506677,
      0.058999236018849995,
      -0.011738362197237763,
      -0.0558752882829858,
      -0.02932654657606859,
      0.031140202551968928,
      -0.10453392746045591,
      0.06729765797704013,
      -0.021929930407728414,
      0.05339159742474965,
      -0.03247715874751383,
      -0.0179098909578069,
      -0.036744351330870124,
      0.018523464362532046,
      -0.03156211239058395,
      0.05575165498565092,
      0.03687314668217879,
      0.08664773754225323,
      0.12144865487197581,
      -0.04926091336496378,
      -0.0004845083870066885,
      -0.0391894949941827,
      -0.17672312155068848,
      0.07035864844102194,
      -0.02286497772282668,
      0.03137494778558176,
      -0.02697022950827986,
      0.13280345307716104,
      0.00521116829193634,
      -0.057567238894490495,
      -0.06178334297608113,
      0.030566912909231827,
      0.00839793336289441,
      -0.02083132330653548,
      -0.10885404238341127,
      -0.1229298412063014,
      0.1535664626629186,
      0.0563771209499385,
      -0.15980389864821706,
      -0.023580923470115617,
      -0.07126485658741719,
      -0.012667924783335572,
      0.07373615850464857,
      0.0814907076754471,
      -0.08596247404765082,
      0.011285594292204765,
      -0.09151880231622296,
      -0.12008607639129877,
      -0.08186968532189726,
      0.04632881557240086,
      0.07608277533965667,
      -0.09688272966406222,
      -0.0502554195137566,
      -0.03574375564384476,
      0.04107966386454724,
      0.03245860780112532,
      0.10440916520750455,
      0.040355573884350765,
      0.0033016890381960618,
      0.030634684326722544,
      -0.03665609887262422,
      -0.033255089446327483,
      0.07521580031969745,
      -0.13606263708973557,
      0.08580894485737207,
      -0.043480191931958026,
      -0.051324848449364434,
      -0.045999700740313336,
      0.04367284659083424,
      0.10387616038796206,
      -0.02524843159927563,
      0.0072543065311863495,
      -0.01368508554423056,
      -0.04341129571895145,
      -0.04540071743861834,
      0.06299488122700211,
      -0.11731112468202037,
      -0.03905896900878782,
      -0.002168007027327179,
      0.11297121740383795,
      -0.03226463238028869,
      0.03200103623072613,
      -0.07777611315508982,
      -0.016197307854026476,
      -0.08350407382768998,
      -0.07650099295440373,
      0.00031007633064036204,
      0.166000351542349,
      -0.08702009759668494,
      -0.040081477546704894,
      0.04399432353612881,
      -0.08632604400589586,
      -0.11431443488491766,
      0.006418383396666149,
      0.016795018341256053,
      -0.11671205291186548,
      -0.005569253203067524,
      0.007460886220802444,
      -0.008411615451064825,
      -0.05205961763043551,
      0.1303545247210826,
      0.03205214831665434,
      -0.021132190714186472,
      0.049846987875463315,
      0.015317052586277679,
      0.06175518168222237,
      -0.1019336185149332,
      0.06341668508431889,
      -0.012201850001401542,
      -0.003329349315351208,
      -0.09942946984876246,
      0.05626124552890865,
      -0.01328100816988676,
      -0.001557712525647942,
      -0.0402906708682633,
      -0.026663069735075862,
      -0.08167912450383366,
      0.027989148438481267,
      0.019412698793919186,
      0.02876988649321767,
      -0.007130156389596525,
      -0.009418474835235951,
      -0.10610727660155976,
      0.050332229278119194,
      -0.09671418582297994,
      -0.08983621701354058,
      0.06266903210878343,
      0.0014125121739193788,
      -0.05242674202071832,
      0.044964809919975555,
      -0.16708654087167665,
      0.026422747030620107,
      0.03447879312840067,
      0.0679884984721246,
      -0.05640326859852661,
      0.021013041055133623,
      0.08147210334622718,
      -0.0918047391244523,
      -0.020745462517812077,
      0.09130234179508873,
      -0.06080397071603252,
      -0.06652592270062455,
      -0.009281445241066806,
      0.08590956515769305,
      0.005165715989769511,
      -0.044282951998434614,
      0.052511890347226066,
      -0.013699672471647549,
      0.06123839546008259,
      -0.01856584302524751,
      0.07663318008153407,
      0.017460131685512113,
      0.032906958117234035,
      0.05383870375625949,
      -0.05190492994842626,
      -0.03922941373739379,
      0.08232245236240142,
      0.04927060749722594,
      0.06199815624970516,
      0.02914955419396642,
      -0.00848428624709149,
      0.015588428837312325,
      -0.03154761618220824,
      0.020069038587272357,
      -0.06438352565220293,
      -0.03726703729917805,
      0.029918284715648044,
      -0.0783940809998622,
      0.007953855074404546,
      -0.11910445451638223,
      -0.028089736726630454,
      0.1358404326840438,
      0.10534846815181588,
      -0.12863954398016791,
      0.08879928044887703,
      0.0060257111711578566,
      -0.014474212867478808,
      -0.035205879275906495,
      0.16022241947804297,
      0.07463089795407081,
      0.008011195087577206,
      0.015059853667941202,
      0.04918993902419446,
      -0.008210931543981058,
      0.1947506787516781,
      0.03700786913129576,
      0.15489609300421392,
      -0.05548638451664855,
      0.08494269897863464,
      0.00026184051398141467,
      0.013745004734810192,
      -0.03569084379072781,
      0.01572494171144355,
      0.014450074692532375,
      0.10447851597298526,
      -0.020204356136221877,
      0.13117612541755166,
      0.0673463301747404,
      -0.025020379325011912,
      0.03127406896055578,
      -0.07220831594060573,
      -0.0012867520184758434,
      0.036265119667321745,
      0.085620598816385,
      -0.12554995048131923,
      0.019405347183585515,
      0.06980086274065414,
      0.08870353821827827,
      -0.07669561786712668,
      -0.0006549196527840836,
      -0.07102144640404807,
      -0.0354865863790982,
      0.08415351159659684,
      -0.010955886829697344,
      -0.04267121270599474,
      0.028856060114446552,
      0.001255585482538945,
      -0.0686424592797222,
      -0.09937722648649511,
      -0.09699856608946866,
      -0.08403734516265929,
      0.019567826561609124,
      -0.012084686129922577,
      0.015212357117531853,
      0.0070004774072942744,
      -0.01962814196083649,
      -0.050292456256192324,
      -0.10043177762887509,
      -0.0832574510284154,
      -0.0015683084188491303,
      -0.10639303562767706,
      -0.032637152676980925,
      -0.05109394208373885,
      0.028449164855644977,
      0.01062851233211382,
      0.009351268227549578,
      0.06860268205028236,
      0.03256915116950674,
      -0.10956741594219298,
      0.015244438291990927,
      -0.023869400204877055,
      0.07787975848515905,
      0.03835017909518318,
      -0.09217324490905664,
      0.03969790396141816,
      -0.056793241353787466,
      -0.03142704314592415,
      -0.061464205549883674,
      0.05394618475817141,
      0.060618066222711334,
      -0.09707725957526205,
      0.05808440602067887,
      -0.16204727300945587,
      -0.07433369421559424,
      -0.055734572663629835,
      0.06086781882030864,
      0.05645470268329833,
      -0.10927894747617303,
      -0.022024468625245753,
      0.05574279391904405,
      0.02699478145808537,
      0.04614480116291856,
      0.05279271757730067,
      0.07012800266327292,
      -0.03755209429835795,
      -0.08979476112477652,
      -0.09011441668041158,
      0.0413544453165805,
      0.039625818956304,
      0.026587749534487125,
      -0.0293930179334053,
      -0.08579879219942167,
      -0.00555529667098982,
      -0.07271292486264684,
      0.0506585644360943,
      -0.043480843240875575,
      -0.21042285460052343,
      0.023834872942853736,
      0.07938920511906758,
      0.17978820486933905,
      -0.055607504263813556,
      0.060197704670811966,
      0.14802116997064615,
      -0.0019185482174429065,
      0.06923627855187114,
      0.08401251299215134,
      0.0014233345159273747,
      -0.012216910959048064,
      -0.03431095267400903,
      0.08130639378498464,
      0.013468314495664753,
      -0.042762770865811546,
      -0.0046428190081373045,
      0.07559815946279025,
      0.0018886797930416023,
      0.1260202358639646,
      -0.07101618860495221,
      -0.06816821905169777,
      0.0711546131578883,
      -0.042286014996271076,
      -0.04430106326740962,
      -0.030510154920391972,
      -0.04894986538170479,
      0.18955680757958376,
      0.023014336393367855,
      -0.11048166026617819,
      -0.07440397187616224,
      -0.024032689212119443,
      -0.028140888728161083,
      -0.014911936184887706,
      0.021301084742410263,
      0.09862053317415034,
      -0.07157763805294555,
      -0.035645101890000246,
      0.00846443767857529,
      -0.02324426819966255,
      -0.06600162976396187,
      0.1701832056113045,
      0.04649669790828702,
      0.035510252698871765,
      -0.11577647343050593,
      0.04258633567667985,
      -0.04628209837178921,
      -0.0020972725203801954,
      0.010273739223901925,
      0.04809873303662474,
      0.03606276122802254,
      0.023676273092035592,
      0.057326802122216816,
      -0.06662637863007502,
      -0.009803827514867905,
      -0.008253723517760611,
      -0.035987019590328316,
      -0.06677681729756384,
      -0.10428733685351542,
      0.03171519208751773,
      -0.031876879420948995,
      -0.011926186575283316,
      0.03323675858908308,
      -0.01915077185220152,
      0.024304960280618085,
      -0.009053452975437465,
      0.020993964718176397,
      0.0661737560300849,
      0.01228466438000199,
      -0.04142323950334011,
      0.016288252377747926,
      0.00012617209945163066,
      -0.012557183331709593,
      0.12420523147055565,
      -0.03379106656507613,
      0.023381496766385578,
      0.03979424637623241,
      0.041269022388577235,
      0.13016534961612572,
      0.060920338488847106,
      -0.016481486787396898,
      -0.11204597712738966,
      0.014963394003595107,
      -0.044778489567760135,
      -0.031514967794778595,
      -0.10218089444707634,
      -0.03940391857218908,
      -0.09697665553765246,
      0.11139660707233491,
      0.10095195191631699,
      0.031153970405385846,
      -0.001510778856624008,
      -0.03126245379063823,
      -0.10592879445845743,
      -0.10609079121407337,
      0.06006552403324838,
      -0.013955397015068729,
      0.026301522391545554,
      0.03742046403614021,
      -0.003651085305847057,
      0.11324923080295816,
      0.06794783128822163,
      -0.04551456609803728,
      -0.017005633646292248,
      -0.025744770277722272,
      0.07582679435835563,
      -0.06036516171015899,
      0.009815963405705709,
      -0.061071258005567265,
      -0.04475024245712097,
      -0.04352531055872512,
      -0.039914617779315584,
      -0.035667080131795315,
      -0.107559010922412,
      -0.08065288644625974,
      0.09490594196691449,
      -0.027987481649357104,
      0.04422818591707814,
      -0.04699312188372154,
      -0.09750381838585183,
      0.05624108743660883,
      0.05711074957604008,
      -0.14254032278650178,
      0.005052047761369133,
      0.0791944136016779,
      -0.04321919577468211,
      0.004467812728164405,
      0.03716592051621069,
      0.008696693995475803,
      -0.06779184008955273,
      -0.049839265643746196,
      -0.07418040768676112,
      0.08040245334692156,
      -0.03566075290716736,
      0.08844400628455314,
      0.0393641815897715,
      0.1160086155769969,
      0.021645344941961644,
      -0.06985011094443204,
      0.0487305222581275,
      -0.0030425768321965573,
      -0.12019230685925328,
      -0.10958861916785712,
      -0.04463144116011947,
      -0.023669311495208935,
      -0.027758582384914906,
      0.02639562880378975,
      0.011020518077170673,
      -0.007865915329162842,
      -0.06571008126646988,
      0.07281274174967307,
      -0.05977840569341613,
      -0.01064036536586886,
      -0.003853180351135272,
      -0.0039302560687547415,
      -0.01105206128987894,
      -0.07804381917791686,
      -0.06274695142362291,
      -0.14985329026286684,
      0.04813106407562333,
      -0.0459202542433737,
      -0.04183076932000617,
      0.14337590643907455,
      -0.04084919616580494,
      0.07534632713464748,
      0.04192083213384055,
      0.07167276203255583,
      0.056430203686860976,
      0.022963969745087784,
      -0.07889614108434635,
      -0.09075828255054981,
      0.006345815502262693,
      0.07037692684494114,
      0.03275427571417106,
      -0.023835665475617038,
      -0.020664797880950422,
      0.05701259154407737,
      0.010141842583793454,
      -0.09138702656782856,
      -0.00760252210952852,
      0.008874775104136423,
      0.03166662104125194,
      0.03518451432341244,
      0.06705611827527556,
      0.07562145817066539,
      -0.0986178879559479,
      -0.05579170476408104,
      0.0035868118586121407,
      -0.030913948222460342,
      -0.012408909079034042,
      0.019065487292814938,
      0.016509761592409605,
      0.007291260884543503,
      -0.010301106380294963,
      -0.099356466586782,
      0.008713142682701782,
      0.0738141114811878,
      -0.014900823964397543,
      0.021691696782092193,
      -0.00960090460169946,
      0.04082176635951366,
      -0.01017150158804541,
      -0.02015780084498352,
      -0.053671759376259044,
      0.004649220626175035,
      -0.011710694071804086,
      -0.06362151162332863,
      -0.021022854050417646,
      -0.107331138032804,
      -0.03356882787910599,
      -0.005588191038315965,
      0.06005203727506599,
      -0.03207055364783659,
      -0.047670008083835085,
      0.08097591210336634,
      -0.0005662078790716213,
      -0.0843343964674295,
      0.08424263181098252,
      0.020302373855117534,
      0.056268178546565746,
      -0.04616542199966249,
      -0.04570848655916796,
      -0.020038493816677026,
      -0.07936790699146541,
      0.129208601336353,
      0.0001621631259231648,
      -0.028734482689407183,
      -0.0800645966978311,
      0.053256177076676584,
      0.066614242164066,
      0.01734664204777078,
      0.003425576967218261,
      -0.04428416874878927,
      0.022886674535883375,
      -0.1038472043042917,
      0.06176950281750043,
      0.05009570894362283,
      -0.016672734762233216,
      0.02633270043071652,
      -0.1081189940102889,
      -0.029462629594695925,
      0.06356230078778784,
      -0.10187510420474791,
      -0.13724565609069034,
      -0.056987140203887385,
      0.047662490962402014,
      -0.03315826491192112,
      0.03170374822788083,
      0.013954332331743377,
      -0.033954473931643116,
      -0.12151317852101914,
      -0.11741737227654424,
      -0.08356597829401327,
      0.06399891871260624,
      -0.017898294751738528,
      -0.04564255037584089,
      -0.05640783659697584,
      -0.10744970867819836,
      0.11363832090095938,
      -0.021786769433415294,
      0.05038347234966139,
      0.046016281701256156,
      -0.14118805822746608,
      0.005601444410683792,
      0.06849789340116562,
      0.006816867568937307,
      -0.11809495210012595,
      -0.008906001370306522,
      0.05888110136552229,
      0.014199179132798589,
      0.05171491667036536,
      0.02601452839316291,
      -0.0645953667420429,
      0.057734375322617396,
      0.0034666550242992387,
      -0.0623073033125163,
      0.046542842197893966,
      0.09336183742463879,
      -0.021594396026238118,
      -0.04045815545492766,
      -0.0725088617842306,
      -0.02358981205944072,
      0.038707428731714844,
      -0.07272632211806737,
      0.01961121989233305,
      0.015012611245463457,
      0.009780136620552929,
      -0.060556080843461736,
      0.03736707637910538,
      0.019999870053090042,
      0.16033471331120733,
      -0.04946045428100261,
      0.003990791307705785,
      0.015581903395608741,
      0.08075024453464677,
      -0.0146648766187635,
      -0.028741167455376766,
      -0.007148207295792896,
      0.06258061125545822,
      0.028979530386944004,
      0.22107283730902663,
      -0.015868317265194592,
      0.0010766098771534316,
      0.12047917096488972,
      0.049600128167869635,
      0.05218488035903077,
      0.027379065730961948,
      0.00652028413648733,
      0.056140868506139835,
      -0.13496601619135692,
      0.057476875117878606,
      -0.009253310713282408,
      0.037749144192763276,
      -0.06328608679155988,
      -0.08468273198745692,
      -0.009822712723947752,
      0.08659359309220874,
      -0.07121962890377288,
      0.010665640550060796,
      0.007500332158172516,
      0.08696701221949213,
      -0.13138844940213515,
      -0.01617230223825459,
      -0.02043233780766985,
      -0.0238326866627927,
      0.024355485159994618,
      -0.05263744372449617,
      -0.2794637040952034,
      0.058037458790098986,
      0.10479060367220866,
      -0.12200321154972278,
      0.07377272101009084,
      -0.08880689003902688,
      0.021489398580691245,
      -0.025711594764211552,
      0.08754223883234037,
      -0.04830112861068015,
      -0.08966378283687104,
      0.09143392096476056,
      0.025166100410805258,
      0.07766141885716728,
      0.06738422154016145,
      0.07363295056921483,
      -0.09971528614615886,
      0.04499192617506901,
      -0.004166410358104607,
      0.08389458524671076,
      0.09512639444817406,
      -0.06674208914535948,
      -0.0492196626554012,
      0.08709171979381329,
      0.028626868546657615,
      -0.022440350695389015,
      0.09757249315096701,
      0.03572597968351031,
      -0.12485972126756624,
      0.0931263270476192,
      -0.05243683112804447,
      0.09527479544126759,
      0.03642503182209733,
      0.07678437704991552,
      0.02126445890813071,
      -0.031379476418291474,
      -0.048083984767685516,
      0.05691973066523853,
      -0.09300719419164101,
      0.11686314381542963,
      0.0666190666497574,
      -0.09029606011433376,
      -0.03502722154459084,
      0.035790927030145366,
      0.010693215097300639,
      0.01672193349375545,
      0.02863252408128786,
      0.12927190714051262,
      -0.005040985208847492,
      0.08682406464838985,
      -0.04593266022079042,
      0.10502286072533784,
      0.017672828775242663,
      -0.010183470206864269,
      0.04023935356465476,
      0.0464019968598563,
      0.04571896101527083,
      -0.008268696938191685,
      0.06162880915420463,
      0.1194992716717873,
      -0.01881768356076377,
      0.07055536766639349,
      0.00521064575992393,
      -0.025102489498887347,
      -0.050206188782267125,
      -0.007879452754139746,
      -0.0027683099120633606,
      -0.024777630967714966,
      -0.051681463647132476,
      -0.12128643234076007,
      0.10695547972049861,
      0.06998580799127836,
      0.035383592206347375,
      0.08074451843193393,
      -0.08079548294859147,
      0.057718929101844674,
      0.016866949013168424,
      0.050758965951886933,
      0.0047789623679010155,
      0.0045244071158863095,
      -0.0011681583784803609,
      0.023250521736482104,
      0.043980639238530135,
      0.017932434711320784,
      -0.0213374087265715,
      -0.03954276861886755,
      0.018154876793695398,
      -0.12532777108030646,
      -0.012417795345471256,
      0.07545101981208567,
      -0.058256689569454824,
      0.08903221721823383,
      -0.13361407664518302,
      0.03551618582941863,
      -0.018727939781228248,
      0.028237887620888094,
      -0.15242813553903178,
      0.004194913714457224,
      -0.04453494750558413,
      0.1173625745490293,
      -0.053855799788424,
      -0.04955272656587665,
      0.019691051847333392,
      0.0017021694463603514,
      -0.0719125475506546,
      -0.10463286834889178,
      0.05617702707979201,
      -0.024722377397273062,
      -0.0032431469262529065,
      -0.04988139223523783,
      0.005436167839322547,
      -0.061421800812549096,
      -0.022609124522662227,
      0.04579957473453466,
      -0.10714903244285041,
      -0.031017362870494114,
      -0.11461071688631275,
      -0.044935260851388575,
      0.06530441501443393,
      -0.030044105714293782,
      -0.025754791771812842,
      -0.045248240331966456,
      0.010897919234343084,
      0.05111171039348901,
      -0.07113935701597819,
      -0.031012605509219655,
      0.029253602407948887,
      0.025147015780263075,
      -0.005206849208055864,
      0.10465704194603186,
      0.05405831322134951,
      -0.006451550489821001,
      0.10329073034225349,
      0.0032612266190413684,
      0.0052393668181782834,
      0.0014881228796013491,
      0.016796447378040095,
      0.06917043807614184,
      -0.06913629884194254,
      0.02236547145366138,
      -0.0025161948218024887,
      0.11491353822648509,
      0.015429488739525096,
      0.06507134392664192,
      0.017548779935542543,
      0.10906477277891563,
      0.05225421021465124,
      -0.035964478337731115,
      -0.05507234959168849,
      0.08908627019058883,
      0.0793130037146826,
      0.03370651294506258,
      0.11583412251190665,
      0.041942862494960056,
      -0.011988110297441085,
      -0.02384258263292999,
      0.031208970162489885,
      -0.009308437888239771,
      -0.23175204492323281,
      0.02488347203367536,
      0.041348040958663915,
      -0.09036361917058504,
      -0.007527431871335704,
      0.08754437909738264,
      0.003974320652580325,
      -0.045202243614294084,
      -0.12795591683986524,
      0.002538435738324592,
      0.04644764791125333,
      0.06719846332063555,
      -0.006736833922293937,
      0.0071167388573610485,
      0.004909059764632162,
      -0.043983638115446116,
      -0.07084202482080153,
      -0.11547770325179813,
      0.12346864700263109,
      -0.011347143670297342,
      -0.05355114793314944,
      0.04134673985376923,
      -0.0026367062970968635,
      -0.06871804715438136,
      0.03575492935066445,
      0.0396102897886316,
      -0.05838197584097725,
      -0.1097244975384771,
      -0.02085072036331741,
      -0.1320666787033208,
      0.0170196111701304,
      -0.034102610650330434,
      -0.0074267427083426225,
      -0.06276916416247647,
      -0.053234788095369946,
      -0.11806424421422979,
      -0.07690933147390258,
      0.03255794826658526,
      0.033112799991813005,
      -0.04286031426615456,
      -0.011705358948316279,
      0.057773860509920456,
      0.06264751074034358,
      0.018292820418473032,
      0.066088320257366,
      -0.08316940648636507,
      0.07749289486272487,
      0.01852773414811807,
      0.059537001982963196,
      0.0721663934868984,
      0.11748600422019953,
      0.0199511293688287,
      0.02399885564751751,
      -0.0085902660401208,
      0.027789744139711563,
      0.008849070732649216,
      0.11475452179123807,
      0.01572322466200735,
      0.04081452908045731,
      0.007603498512879645,
      -0.043067317179647076,
      0.019914064400722627,
      0.01844763322295273,
      -0.05431779620150999,
      -0.08937003563618566,
      -0.009624394619791251,
      0.00587051754693332,
      0.04279055166992799,
      -0.003945795238892357,
      -0.007938835220785782,
      0.0211670371482638,
      -0.03433124633557674,
      -0.0719547700699971,
      -0.04630214505399709,
      -0.03732574914199345,
      -0.025061149624531567,
      -0.05898692229934801,
      0.024371932392761763,
      -0.05313831239288318,
      -0.05161313084823609,
      -0.04015279990477679,
      -0.1078306804201731,
      0.045668254347162165,
      -0.016296085249396908,
      -0.08041553440716598,
      -0.007703855203209065,
      -0.03791070634846688,
      -0.012971882009895916,
      0.030612018362323235,
      -0.03145224892235005,
      0.007100477410252454,
      0.07426268015714173,
      -0.15872779636643525,
      -0.03603682710967034,
      -0.03992171674951299,
      0.017653016658237455,
      0.05002354098315991,
      0.07560382963923494,
      -0.02668919540109915,
      -0.0073443514369246074,
      -0.04937076639457285,
      -0.054192120242987384,
      0.03321627450827923,
      0.009275683982333017,
      0.051656446924306335,
      -0.08567106081656486,
      -0.005916986968740624,
      -0.09672831779018179,
      0.015426891814364135,
      0.009948843105698066,
      -0.060622554811082544,
      0.004190706003901458,
      -0.03460709794198809,
      0.05722885566789873,
      -0.08966578418081138,
      -0.020916574217354978,
      -0.1324964825153591,
      -0.0543182322535707,
      0.03884292093634961,
      -0.0920938124122446,
      0.06809332195776661,
      -0.021074054270053356,
      0.00977062683240769,
      0.0776452726364278,
      -0.010492570705067518,
      0.05173967611724369,
      -0.05783862893144213,
      -0.02675664767040522,
      -0.02110901740062254,
      -0.055113717390488884,
      -0.1120800494900678,
      0.13961768488089482,
      -0.02519619636365295,
      0.06676793485944058,
      -0.007441481899416732,
      -0.11406291890345954,
      -0.0631838844604007,
      -0.0490543372090884,
      -0.025335387529985095,
      -0.12033021432287222,
      -0.004921767985783179,
      0.01810639212786068,
      0.013743507654302258,
      -0.04384369452782931,
      -0.04472858693978284,
      -0.049141601010853,
      0.04398949288076489,
      -0.005682309680687884,
      0.046110277636595094,
      -0.039156199322462955,
      0.09186357193050436,
      0.09338041352382193,
      -0.11346951904398835,
      -0.06327964150266772,
      0.2229658368540561,
      -0.04897151490615306,
      -0.017078107008501726,
      -0.06176562092545977,
      -0.0006885956560663888,
      -0.001426343265304429,
      0.12190646958724662,
      0.03212452715777208,
      0.09887508079740448,
      -0.07880624844121596,
      -0.03972563386961976,
      -0.05460542983851008,
      0.033023086616102454,
